{
    "mean_fit_time": [
        0.19256739616394042,
        0.1776714324951172,
        0.20729260444641112,
        0.2308134078979492,
        0.14569664001464844,
        0.18442239761352539,
        0.2690993309020996,
        0.27738265991210936,
        0.15711426734924316,
        0.160886812210083,
        0.18648438453674315,
        0.23286280632019044,
        0.15860538482666015,
        0.1579308032989502,
        0.18765668869018554,
        0.21672182083129882,
        0.26657671928405763,
        0.17960748672485352,
        0.20364460945129395,
        0.2246607780456543,
        0.27847113609313967,
        0.17088518142700196,
        0.19090051651000978,
        0.2424858570098877,
        1.0657415390014648,
        0.3970028877258301,
        0.2637460231781006,
        0.23253703117370605,
        1.0344067573547364,
        0.4036128044128418,
        0.25893254280090333,
        0.21078624725341796
    ],
    "std_fit_time": [
        0.021286509547853848,
        0.011942092096417426,
        0.015840853933392532,
        0.02089027377821539,
        0.007961502747900183,
        0.014699046028788064,
        0.025252898285327206,
        0.014169626168569595,
        0.010962097101741662,
        0.012989732892274817,
        0.011486004240302048,
        0.01801070592470179,
        0.00954841515863088,
        0.012006503866742128,
        0.005739026078909946,
        0.010248906188490711,
        0.03249285287415727,
        0.009380722289736718,
        0.014810220313595157,
        0.007009756109104322,
        0.030698601563793046,
        0.008419528950527643,
        0.013360227870317445,
        0.030159604398003356,
        0.1038825549552183,
        0.054500487567776854,
        0.01642178789158749,
        0.02229603695289253,
        0.08302707050537074,
        0.01722594490618547,
        0.014756717871509747,
        0.009554642436462351
    ],
    "mean_score_time": [
        0.03255934715270996,
        0.03348827362060547,
        0.06788063049316406,
        0.0446815013885498,
        0.028011560440063477,
        0.043893861770629886,
        0.07214641571044922,
        0.04606385231018066,
        0.029401493072509766,
        0.029303216934204103,
        0.06956000328063965,
        0.046590232849121095,
        0.032210779190063474,
        0.03293600082397461,
        0.07279810905456544,
        0.046987152099609374,
        0.030725622177124025,
        0.030282020568847656,
        0.0717198371887207,
        0.04679083824157715,
        0.027785825729370116,
        0.029917812347412108,
        0.07325577735900879,
        0.047055625915527345,
        0.029432392120361327,
        0.02725381851196289,
        0.07307004928588867,
        0.042140865325927736,
        0.02564554214477539,
        0.03065519332885742,
        0.07262206077575684,
        0.03307046890258789
    ],
    "std_score_time": [
        0.008928305681532108,
        0.009186671952557927,
        0.00785783542222301,
        0.004859667011688984,
        0.002133050066762179,
        0.008591306450590966,
        0.0025185493821667953,
        0.0035764326647353315,
        0.003387250656049582,
        0.00492869428969944,
        0.012730440658637647,
        0.006797153436222771,
        0.005165819840506951,
        0.005690487138472664,
        0.013877692598472154,
        0.007540287845799022,
        0.004596795024920269,
        0.0035338882842706225,
        0.004823659109690332,
        0.010137633643446655,
        0.005431361078862155,
        0.0014100911070811062,
        0.012692817208461498,
        0.007679223614709585,
        0.003170482564777095,
        0.005198577401160701,
        0.008518641985763912,
        0.004591598719754101,
        0.004707436084755018,
        0.002125992982397099,
        0.012136151508316114,
        0.00016610850830445798
    ],
    "param_C": [
        0.1,
        0.1,
        0.1,
        0.1,
        0.1,
        0.1,
        0.1,
        0.1,
        1.0,
        1.0,
        1.0,
        1.0,
        1.0,
        1.0,
        1.0,
        1.0,
        10.0,
        10.0,
        10.0,
        10.0,
        10.0,
        10.0,
        10.0,
        10.0,
        100.0,
        100.0,
        100.0,
        100.0,
        100.0,
        100.0,
        100.0,
        100.0
    ],
    "param_gamma": [
        "scale",
        "scale",
        "scale",
        "scale",
        "auto",
        "auto",
        "auto",
        "auto",
        "scale",
        "scale",
        "scale",
        "scale",
        "auto",
        "auto",
        "auto",
        "auto",
        "scale",
        "scale",
        "scale",
        "scale",
        "auto",
        "auto",
        "auto",
        "auto",
        "scale",
        "scale",
        "scale",
        "scale",
        "auto",
        "auto",
        "auto",
        "auto"
    ],
    "param_kernel": [
        "linear",
        "poly",
        "rbf",
        "sigmoid",
        "linear",
        "poly",
        "rbf",
        "sigmoid",
        "linear",
        "poly",
        "rbf",
        "sigmoid",
        "linear",
        "poly",
        "rbf",
        "sigmoid",
        "linear",
        "poly",
        "rbf",
        "sigmoid",
        "linear",
        "poly",
        "rbf",
        "sigmoid",
        "linear",
        "poly",
        "rbf",
        "sigmoid",
        "linear",
        "poly",
        "rbf",
        "sigmoid"
    ],
    "params": [
        {
            "C": 0.1,
            "gamma": "scale",
            "kernel": "linear"
        },
        {
            "C": 0.1,
            "gamma": "scale",
            "kernel": "poly"
        },
        {
            "C": 0.1,
            "gamma": "scale",
            "kernel": "rbf"
        },
        {
            "C": 0.1,
            "gamma": "scale",
            "kernel": "sigmoid"
        },
        {
            "C": 0.1,
            "gamma": "auto",
            "kernel": "linear"
        },
        {
            "C": 0.1,
            "gamma": "auto",
            "kernel": "poly"
        },
        {
            "C": 0.1,
            "gamma": "auto",
            "kernel": "rbf"
        },
        {
            "C": 0.1,
            "gamma": "auto",
            "kernel": "sigmoid"
        },
        {
            "C": 1,
            "gamma": "scale",
            "kernel": "linear"
        },
        {
            "C": 1,
            "gamma": "scale",
            "kernel": "poly"
        },
        {
            "C": 1,
            "gamma": "scale",
            "kernel": "rbf"
        },
        {
            "C": 1,
            "gamma": "scale",
            "kernel": "sigmoid"
        },
        {
            "C": 1,
            "gamma": "auto",
            "kernel": "linear"
        },
        {
            "C": 1,
            "gamma": "auto",
            "kernel": "poly"
        },
        {
            "C": 1,
            "gamma": "auto",
            "kernel": "rbf"
        },
        {
            "C": 1,
            "gamma": "auto",
            "kernel": "sigmoid"
        },
        {
            "C": 10,
            "gamma": "scale",
            "kernel": "linear"
        },
        {
            "C": 10,
            "gamma": "scale",
            "kernel": "poly"
        },
        {
            "C": 10,
            "gamma": "scale",
            "kernel": "rbf"
        },
        {
            "C": 10,
            "gamma": "scale",
            "kernel": "sigmoid"
        },
        {
            "C": 10,
            "gamma": "auto",
            "kernel": "linear"
        },
        {
            "C": 10,
            "gamma": "auto",
            "kernel": "poly"
        },
        {
            "C": 10,
            "gamma": "auto",
            "kernel": "rbf"
        },
        {
            "C": 10,
            "gamma": "auto",
            "kernel": "sigmoid"
        },
        {
            "C": 100,
            "gamma": "scale",
            "kernel": "linear"
        },
        {
            "C": 100,
            "gamma": "scale",
            "kernel": "poly"
        },
        {
            "C": 100,
            "gamma": "scale",
            "kernel": "rbf"
        },
        {
            "C": 100,
            "gamma": "scale",
            "kernel": "sigmoid"
        },
        {
            "C": 100,
            "gamma": "auto",
            "kernel": "linear"
        },
        {
            "C": 100,
            "gamma": "auto",
            "kernel": "poly"
        },
        {
            "C": 100,
            "gamma": "auto",
            "kernel": "rbf"
        },
        {
            "C": 100,
            "gamma": "auto",
            "kernel": "sigmoid"
        }
    ],
    "split0_test_score": [
        -377.07531662930666,
        -398.50379332563494,
        -403.48470834012494,
        -400.1171651423372,
        -377.07531662930666,
        -398.54068245958894,
        -403.4854997504177,
        -400.1281182561337,
        -375.08765102953214,
        -387.7318152631744,
        -384.53985053702564,
        -398.8489973245951,
        -375.08765102953214,
        -387.7443901692617,
        -384.53776656850397,
        -398.81894365945305,
        -374.48250327481566,
        -384.6928781591952,
        -381.52376953979467,
        -7839.9447775341905,
        -374.48250327481566,
        -384.6778940113233,
        -381.5199984381883,
        -7747.133055592192,
        -373.9734354309841,
        -438.4372620275805,
        -407.0595949614599,
        -913955.5799527153,
        -373.9734354309841,
        -438.2593899629829,
        -406.9853581417627,
        -902922.5917231012
    ],
    "split1_test_score": [
        -401.6473735115635,
        -403.1876848298907,
        -407.1104976166952,
        -405.9143307913468,
        -401.6473735115635,
        -403.12542352684414,
        -407.1100138535745,
        -405.9008216229088,
        -406.37470030426164,
        -393.4954238829941,
        -396.46462459538617,
        -417.15406877377495,
        -406.37470030426164,
        -393.48364142131265,
        -396.4504383295168,
        -417.35123968536544,
        -407.9533124297576,
        -404.4071971893903,
        -395.17564029170967,
        -7799.06042082793,
        -407.9533124297576,
        -404.5496468906648,
        -395.1856603507024,
        -4963.579417176997,
        -408.661540522408,
        -439.4661887765002,
        -423.6637393296141,
        -632613.9279726375,
        -408.661540522408,
        -439.6871744734574,
        -423.8855429919204,
        -694900.3490985829
    ],
    "split2_test_score": [
        -408.45075243329296,
        -408.3251060584638,
        -409.21516768637525,
        -409.25120148504476,
        -408.45075243329296,
        -408.2990102023225,
        -409.2147587622235,
        -409.2436720645897,
        -410.42149332145505,
        -404.85375570645533,
        -401.1276678059566,
        -428.3281355561831,
        -410.42149332145505,
        -404.8501128187015,
        -401.1223518177307,
        -428.77454438674675,
        -413.92582131407,
        -418.44904858392226,
        -402.6868124015499,
        -7178.9781922742295,
        -413.92582131407,
        -418.5469839541787,
        -402.7080199834806,
        -7214.949524399075,
        -414.46565127583114,
        -490.51739380386425,
        -455.8519352751074,
        -827004.772207485,
        -414.46565127583114,
        -490.74294754169335,
        -455.99109899546835,
        -835168.6443793424
    ],
    "split3_test_score": [
        -403.1489321989301,
        -419.45554627759583,
        -422.16941421611745,
        -419.6533446850675,
        -403.1489321989301,
        -419.5264962629284,
        -422.16782701987233,
        -419.6585030007889,
        -404.1230843637489,
        -404.6849695776787,
        -399.50712424486846,
        -419.14971578050466,
        -404.1230843637489,
        -404.670921764586,
        -399.5025925565586,
        -419.30370079117,
        -402.6699475255796,
        -416.76478611291196,
        -393.7062634858995,
        -8010.758250013061,
        -402.6699475255796,
        -416.7098731170081,
        -393.6866387097877,
        -7954.03259046578,
        -402.7356094962327,
        -443.81813901330486,
        -425.0294106278536,
        -878817.2037206505,
        -402.7356094962327,
        -443.71064384699764,
        -424.9338700318963,
        -997551.1445309352
    ],
    "split4_test_score": [
        -368.7545990841978,
        -385.8646105286076,
        -390.61644938036244,
        -390.0586291527804,
        -368.7545990841978,
        -385.97674984555863,
        -390.61965014518853,
        -390.0864640867273,
        -366.51355883509177,
        -365.898780831787,
        -368.18608927777103,
        -391.24269752609666,
        -366.51355883509177,
        -365.9509439556038,
        -368.1963320282174,
        -391.0116577299394,
        -366.00332144655636,
        -357.85451217528305,
        -351.39694327712965,
        -7177.0067458683,
        -366.00332144655636,
        -357.74207636524113,
        -351.411782265804,
        -7059.8012729614065,
        -365.2897435887355,
        -420.6871626158124,
        -374.2200265798859,
        -815456.9934472673,
        -365.2897435887355,
        -420.2551244030106,
        -374.0808400396283,
        -810210.9517240137
    ],
    "mean_test_score": [
        -391.81539477145816,
        -403.06734820403864,
        -406.5192474479351,
        -404.99893425131535,
        -391.81539477145816,
        -403.0936724594485,
        -406.51954990625535,
        -405.0035158062297,
        -392.50409757081786,
        -391.3329490524179,
        -389.96507129220157,
        -410.9447229922309,
        -392.50409757081786,
        -391.3400020258931,
        -389.96189626010556,
        -411.05201725053496,
        -393.0069811981558,
        -396.43368444414057,
        -384.8978857992167,
        -7601.1496773035415,
        -393.0069811981558,
        -396.44529486768323,
        -384.9024199495926,
        -6987.8991721190905,
        -393.0251960628383,
        -446.58522924741237,
        -417.16494135478416,
        -813569.6954601512,
        -393.0251960628383,
        -446.53105604562836,
        -417.1753420401352,
        -848150.736291195
    ],
    "std_test_score": [
        15.817219746018917,
        11.072413931165423,
        10.145468905288027,
        9.80526245119525,
        15.817219746018917,
        11.053081063781269,
        10.143901101992595,
        9.796332637986957,
        18.040334024995307,
        14.322220775557861,
        12.342249442047535,
        13.7298018991818,
        18.040334024995307,
        14.299401378317176,
        12.33566213468221,
        13.950788879712674,
        19.113961021396534,
        22.74997109423466,
        18.074089050033393,
        352.73132386903393,
        19.113961021396534,
        22.80889808462288,
        18.07213608120736,
        1064.3723142476724,
        19.65047288979478,
        23.347256084069464,
        26.635132743833594,
        97225.11620713281,
        19.65047288979478,
        23.530107662627554,
        26.73146616236587,
        100413.22748298863
    ],
    "rank_test_score": [
        7,
        17,
        21,
        19,
        7,
        18,
        22,
        20,
        9,
        5,
        4,
        23,
        9,
        6,
        3,
        24,
        11,
        15,
        1,
        30,
        11,
        16,
        2,
        29,
        13,
        28,
        25,
        31,
        13,
        27,
        26,
        32
    ]
}