{
    "mean_fit_time": [
        0.13856334686279298,
        0.17270922660827637,
        0.1896517753601074,
        0.22628068923950195,
        0.15213775634765625,
        0.16264219284057618,
        0.21781258583068847,
        0.2588198661804199,
        0.2126230239868164,
        0.1905228614807129,
        0.23973817825317384,
        0.24969282150268554,
        0.1998497486114502,
        0.17992324829101564,
        0.21686735153198242,
        0.2593844413757324,
        0.26239376068115233,
        0.22012872695922853,
        0.22326884269714356,
        0.2657172203063965,
        0.23542938232421876,
        0.182322359085083,
        0.2500889301300049,
        0.2899168014526367,
        0.8168260097503662,
        0.33045358657836915,
        0.22297778129577636,
        0.2879420280456543,
        0.628886604309082,
        0.225289249420166,
        0.2688732624053955,
        0.22007975578308106
    ],
    "std_fit_time": [
        0.008934729646600135,
        0.008886774220576368,
        0.02341677608183593,
        0.02008643732171064,
        0.00293379412535998,
        0.00557345660012013,
        0.013569979234395426,
        0.014434805511952961,
        0.01900028039485711,
        0.013566482703897521,
        0.015671240148737647,
        0.014089994730375206,
        0.009304021242765154,
        0.013692081187963563,
        0.010256845447121778,
        0.021905889391948877,
        0.025239675446259147,
        0.00900048031963762,
        0.012549707221225536,
        0.019009928135265884,
        0.015279182062483085,
        0.006417824886259397,
        0.008999388218971699,
        0.01382270216222542,
        0.13822237088057665,
        0.03779967617854079,
        0.023172360789927026,
        0.05458142836785666,
        0.029025488231220895,
        0.01733476301441071,
        0.0459276107413816,
        0.015256345620765313
    ],
    "mean_score_time": [
        0.03327202796936035,
        0.0608121395111084,
        0.08555712699890136,
        0.04958701133728027,
        0.03591303825378418,
        0.0450474739074707,
        0.08473482131958007,
        0.06342601776123047,
        0.03297138214111328,
        0.03809404373168945,
        0.09217000007629395,
        0.05253610610961914,
        0.031399202346801755,
        0.04231958389282227,
        0.09726696014404297,
        0.045608139038085936,
        0.03187203407287598,
        0.03189406394958496,
        0.0916773796081543,
        0.05363650321960449,
        0.02744121551513672,
        0.03359341621398926,
        0.08823051452636718,
        0.04281916618347168,
        0.04555168151855469,
        0.042708301544189455,
        0.06390047073364258,
        0.04811782836914062,
        0.030228662490844726,
        0.030645036697387697,
        0.07985010147094726,
        0.03431482315063476
    ],
    "std_score_time": [
        0.004177568359143757,
        0.02702701750321637,
        0.007550530710818877,
        0.008109099589049613,
        0.007889974398462172,
        0.007366934372994015,
        0.008302366336505088,
        0.009782476122831162,
        0.003707169880782008,
        0.004578722561758287,
        0.006304302156672477,
        0.0031903324492616393,
        0.004786615101237359,
        0.008743601088276907,
        0.009078593295212049,
        0.00749148804146306,
        0.009412035289324154,
        0.003551236066842871,
        0.011571947826455863,
        0.005217325805389038,
        0.006911901953048747,
        0.003939959643280807,
        0.012310803840812089,
        0.007431379118567693,
        0.030816320046652836,
        0.012869777997856801,
        0.005154975334258534,
        0.010354181992146543,
        0.009799158966846857,
        0.005209341557938519,
        0.024835358656931244,
        0.001267616043143951
    ],
    "param_C": [
        0.1,
        0.1,
        0.1,
        0.1,
        0.1,
        0.1,
        0.1,
        0.1,
        1.0,
        1.0,
        1.0,
        1.0,
        1.0,
        1.0,
        1.0,
        1.0,
        10.0,
        10.0,
        10.0,
        10.0,
        10.0,
        10.0,
        10.0,
        10.0,
        100.0,
        100.0,
        100.0,
        100.0,
        100.0,
        100.0,
        100.0,
        100.0
    ],
    "param_gamma": [
        "scale",
        "scale",
        "scale",
        "scale",
        "auto",
        "auto",
        "auto",
        "auto",
        "scale",
        "scale",
        "scale",
        "scale",
        "auto",
        "auto",
        "auto",
        "auto",
        "scale",
        "scale",
        "scale",
        "scale",
        "auto",
        "auto",
        "auto",
        "auto",
        "scale",
        "scale",
        "scale",
        "scale",
        "auto",
        "auto",
        "auto",
        "auto"
    ],
    "param_kernel": [
        "linear",
        "poly",
        "rbf",
        "sigmoid",
        "linear",
        "poly",
        "rbf",
        "sigmoid",
        "linear",
        "poly",
        "rbf",
        "sigmoid",
        "linear",
        "poly",
        "rbf",
        "sigmoid",
        "linear",
        "poly",
        "rbf",
        "sigmoid",
        "linear",
        "poly",
        "rbf",
        "sigmoid",
        "linear",
        "poly",
        "rbf",
        "sigmoid",
        "linear",
        "poly",
        "rbf",
        "sigmoid"
    ],
    "params": [
        {
            "C": 0.1,
            "gamma": "scale",
            "kernel": "linear"
        },
        {
            "C": 0.1,
            "gamma": "scale",
            "kernel": "poly"
        },
        {
            "C": 0.1,
            "gamma": "scale",
            "kernel": "rbf"
        },
        {
            "C": 0.1,
            "gamma": "scale",
            "kernel": "sigmoid"
        },
        {
            "C": 0.1,
            "gamma": "auto",
            "kernel": "linear"
        },
        {
            "C": 0.1,
            "gamma": "auto",
            "kernel": "poly"
        },
        {
            "C": 0.1,
            "gamma": "auto",
            "kernel": "rbf"
        },
        {
            "C": 0.1,
            "gamma": "auto",
            "kernel": "sigmoid"
        },
        {
            "C": 1,
            "gamma": "scale",
            "kernel": "linear"
        },
        {
            "C": 1,
            "gamma": "scale",
            "kernel": "poly"
        },
        {
            "C": 1,
            "gamma": "scale",
            "kernel": "rbf"
        },
        {
            "C": 1,
            "gamma": "scale",
            "kernel": "sigmoid"
        },
        {
            "C": 1,
            "gamma": "auto",
            "kernel": "linear"
        },
        {
            "C": 1,
            "gamma": "auto",
            "kernel": "poly"
        },
        {
            "C": 1,
            "gamma": "auto",
            "kernel": "rbf"
        },
        {
            "C": 1,
            "gamma": "auto",
            "kernel": "sigmoid"
        },
        {
            "C": 10,
            "gamma": "scale",
            "kernel": "linear"
        },
        {
            "C": 10,
            "gamma": "scale",
            "kernel": "poly"
        },
        {
            "C": 10,
            "gamma": "scale",
            "kernel": "rbf"
        },
        {
            "C": 10,
            "gamma": "scale",
            "kernel": "sigmoid"
        },
        {
            "C": 10,
            "gamma": "auto",
            "kernel": "linear"
        },
        {
            "C": 10,
            "gamma": "auto",
            "kernel": "poly"
        },
        {
            "C": 10,
            "gamma": "auto",
            "kernel": "rbf"
        },
        {
            "C": 10,
            "gamma": "auto",
            "kernel": "sigmoid"
        },
        {
            "C": 100,
            "gamma": "scale",
            "kernel": "linear"
        },
        {
            "C": 100,
            "gamma": "scale",
            "kernel": "poly"
        },
        {
            "C": 100,
            "gamma": "scale",
            "kernel": "rbf"
        },
        {
            "C": 100,
            "gamma": "scale",
            "kernel": "sigmoid"
        },
        {
            "C": 100,
            "gamma": "auto",
            "kernel": "linear"
        },
        {
            "C": 100,
            "gamma": "auto",
            "kernel": "poly"
        },
        {
            "C": 100,
            "gamma": "auto",
            "kernel": "rbf"
        },
        {
            "C": 100,
            "gamma": "auto",
            "kernel": "sigmoid"
        }
    ],
    "split0_test_score": [
        -378.50488055417605,
        -395.0745225836748,
        -400.0349186486228,
        -400.15042514993814,
        -378.50488055417605,
        -399.5829782131274,
        -400.42349171272355,
        -401.15705197732564,
        -373.5481591629988,
        -382.04385475954746,
        -376.4277054240854,
        -409.9070425797023,
        -373.5481591629988,
        -384.7922549161818,
        -376.9226129503267,
        -398.407524759411,
        -371.7420026795445,
        -374.98249806010784,
        -366.3813885221156,
        -7938.225420408205,
        -371.7420026795445,
        -375.4650751765102,
        -365.9940555195684,
        -4165.727847167327,
        -371.2745079772674,
        -390.79081473513276,
        -376.3569502274854,
        -1315764.6373320296,
        -371.2745079772674,
        -386.1470359421846,
        -374.6838987462326,
        -749719.1879259286
    ],
    "split1_test_score": [
        -401.88407240690816,
        -402.2370626247851,
        -406.83107430987883,
        -406.2384818580307,
        -401.88407240690816,
        -405.3082394937406,
        -406.98228575868586,
        -406.81923980166704,
        -404.32748150489215,
        -393.4418479643116,
        -396.45341793057037,
        -426.3972508947444,
        -404.32748150489215,
        -394.3682978793749,
        -396.60902519896365,
        -418.61779291639596,
        -407.69306112341155,
        -393.83069497195726,
        -389.0718225254918,
        -10467.81829210605,
        -407.69306112341155,
        -393.63906106774556,
        -388.71706538139256,
        -3630.8105575475856,
        -408.4793186066171,
        -398.6343096092998,
        -398.4920163464663,
        -1071996.235864308,
        -408.4793186066171,
        -397.5366617439708,
        -395.60918443391535,
        -625769.5503549357
    ],
    "split2_test_score": [
        -404.1037109706916,
        -405.36541255100707,
        -408.50502546776414,
        -407.7125941282138,
        -404.1037109706916,
        -407.35991506262786,
        -408.68119759843324,
        -408.2060702960913,
        -405.2090262545531,
        -406.3856842511063,
        -400.61858758661054,
        -427.16321001604746,
        -405.2090262545531,
        -405.21772271140895,
        -401.04428854077076,
        -418.5562106465779,
        -407.60163880335034,
        -402.2470712494788,
        -396.71641221407924,
        -7004.519216268663,
        -407.60163880335034,
        -401.77432958683977,
        -396.79575525491924,
        -3845.517723049476,
        -407.74262203411007,
        -409.278682134707,
        -408.8885778458773,
        -1125005.982376742,
        -407.74262203411007,
        -406.69745144176676,
        -406.55274745013116,
        -644519.0994795242
    ],
    "split3_test_score": [
        -399.5958696852327,
        -415.35012150401866,
        -420.12130821793926,
        -418.7832446345785,
        -399.5958696852327,
        -420.22167911550974,
        -420.3841218154004,
        -419.84518276434983,
        -396.8768959483378,
        -399.68311543994906,
        -395.44516880655357,
        -425.74612617237307,
        -396.8768959483378,
        -403.396402122095,
        -395.67867923403776,
        -414.0416538592597,
        -395.50674351346606,
        -386.1750182966312,
        -383.41220201613686,
        -8722.32133257137,
        -395.50674351346606,
        -388.1864272727291,
        -383.36039824677397,
        -3915.158129618636,
        -395.11872490266813,
        -389.82373233323716,
        -385.21623192762814,
        -1212956.2731846208,
        -395.11872490266813,
        -384.53320394684823,
        -383.5412651088423,
        -712652.4570220879
    ],
    "split4_test_score": [
        -371.7037675960512,
        -383.1935631875721,
        -389.17141862511386,
        -389.2120610716481,
        -371.7037675960512,
        -387.67844179884077,
        -389.6118371856816,
        -390.12774246817753,
        -370.17242610245955,
        -365.7077442347735,
        -367.20356769213726,
        -400.93879699275516,
        -370.17242610245955,
        -368.9044524571879,
        -367.87845038273747,
        -390.1322523505906,
        -371.3689688713171,
        -365.86727791294896,
        -358.32520754466464,
        -7820.178890743888,
        -371.3689688713171,
        -363.1546620599007,
        -358.97823690864584,
        -4244.0927441504155,
        -373.5148776215289,
        -382.6262433481425,
        -364.5429456183444,
        -1013595.5584599873,
        -373.5148776215289,
        -374.9044436343876,
        -362.4761073925013,
        -677734.1071188155
    ],
    "mean_test_score": [
        -391.15846024261197,
        -400.2441364902116,
        -404.9327490538638,
        -404.4193613684819,
        -391.15846024261197,
        -404.0302507367693,
        -405.216586814185,
        -405.23105746152225,
        -390.02679779464825,
        -389.45244932993756,
        -387.22968948799144,
        -418.0304853311245,
        -390.02679779464825,
        -391.3358260172497,
        -387.62661126136726,
        -407.951086906447,
        -390.7824829982179,
        -384.6205120982248,
        -378.7814065644977,
        -8390.612630419635,
        -390.7824829982179,
        -384.4439110327451,
        -378.76910226226,
        -3960.2614003066874,
        -391.2260102284383,
        -394.2307564321038,
        -386.6993443931603,
        -1147863.7374435375,
        -391.2260102284383,
        -389.96375934183163,
        -384.5726406263245,
        -682078.8803802584
    ],
    "std_test_score": [
        13.359687838553072,
        10.731607188091138,
        10.19279555959302,
        9.694962842666223,
        13.359687838553072,
        10.602284293224566,
        10.115901445565449,
        9.691783399886722,
        15.150412976209166,
        14.32490536777605,
        13.035047165320378,
        10.68697031108353,
        15.150412976209166,
        13.366714479994153,
        12.885022780639979,
        11.592521001371397,
        16.313152444961066,
        12.980867864729783,
        14.291381183119752,
        1172.6992637432986,
        16.313152444961066,
        13.658347150323765,
        14.141303743839368,
        222.04277372867682,
        16.108227732216616,
        9.074702559729877,
        15.693947491627032,
        106521.40540069526,
        16.108227732216616,
        11.029112394672786,
        15.440454187525841,
        44967.34290004667
    ],
    "rank_test_score": [
        15,
        21,
        24,
        23,
        15,
        22,
        25,
        26,
        11,
        9,
        7,
        28,
        11,
        19,
        8,
        27,
        13,
        5,
        2,
        30,
        13,
        3,
        1,
        29,
        17,
        20,
        6,
        32,
        17,
        10,
        4,
        31
    ]
}