{
    "mean_fit_time": [
        0.14556527137756348,
        0.1782231330871582,
        0.18393297195434571,
        0.28026347160339354,
        0.17476334571838378,
        0.1858583450317383,
        0.2114417552947998,
        0.25263638496398927,
        0.19031143188476562,
        0.1871047019958496,
        0.2207401752471924,
        0.23537921905517578,
        0.18522424697875978,
        0.18379945755004884,
        0.21666760444641114,
        0.24374856948852539,
        0.32932868003845217,
        0.20462274551391602,
        0.21523051261901854,
        0.2734840393066406,
        0.3222900390625,
        0.2057401180267334,
        0.24192485809326172,
        0.26752796173095705,
        1.48142728805542,
        0.625751543045044,
        0.30212888717651365,
        0.2728883266448975,
        1.1456395626068114,
        0.43074874877929686,
        0.22674665451049805,
        0.20929770469665526
    ],
    "std_fit_time": [
        0.014015614412408455,
        0.016863990752762528,
        0.02878047372588353,
        0.008934813461453623,
        0.008565285633801335,
        0.013005995684497425,
        0.006882107340759027,
        0.009509864380212327,
        0.009924326045491243,
        0.0065151141495844835,
        0.012819874073458986,
        0.013417239181182301,
        0.010853798423746536,
        0.006189694672892351,
        0.009087393128639777,
        0.01328468237998067,
        0.019146867477830364,
        0.015117017674498367,
        0.011002647662743243,
        0.006613235034552147,
        0.026200992218573006,
        0.010743386102010165,
        0.012028101508052814,
        0.014660757980013935,
        0.2998332844032418,
        0.12977030489516556,
        0.01081261223161115,
        0.011958022214358663,
        0.1865977342198042,
        0.04963234399091209,
        0.017042581362497956,
        0.022347787630080374
    ],
    "mean_score_time": [
        0.034925985336303714,
        0.035103559494018555,
        0.07457485198974609,
        0.0468696117401123,
        0.030141830444335938,
        0.0331606388092041,
        0.08218865394592285,
        0.04907989501953125,
        0.038891839981079104,
        0.03626904487609863,
        0.08165664672851562,
        0.046824407577514646,
        0.03451976776123047,
        0.035642242431640624,
        0.07403354644775391,
        0.051777076721191403,
        0.03464012145996094,
        0.03881516456604004,
        0.08550443649291992,
        0.046368741989135744,
        0.03188681602478027,
        0.032907962799072266,
        0.08417034149169922,
        0.0492098331451416,
        0.03546600341796875,
        0.0383969783782959,
        0.06885204315185547,
        0.04863924980163574,
        0.021744394302368165,
        0.027012014389038087,
        0.061853885650634766,
        0.040477943420410153
    ],
    "std_score_time": [
        0.002674427359686865,
        0.013543469420909011,
        0.01339077976954903,
        0.0036808810660080614,
        0.003146871560160364,
        0.0076939432326839806,
        0.012720639064117262,
        0.010666120195956795,
        0.005176489305011994,
        0.003345748845507082,
        0.00789461916230309,
        0.0047291693005349815,
        0.004240045831152405,
        0.006458987461522808,
        0.004106758499422053,
        0.005587562953537246,
        0.00550677184731137,
        0.007769007007848805,
        0.012174641869895149,
        0.008542334329780753,
        0.004674047146904748,
        0.005546801965924337,
        0.006924047706390325,
        0.008541637191400366,
        0.013850216919056895,
        0.005718890592917919,
        0.012917980699980298,
        0.0035957212138563155,
        0.001445455666324298,
        0.003695693645906826,
        0.005055229225039287,
        0.011106376334132593
    ],
    "param_C": [
        0.1,
        0.1,
        0.1,
        0.1,
        0.1,
        0.1,
        0.1,
        0.1,
        1.0,
        1.0,
        1.0,
        1.0,
        1.0,
        1.0,
        1.0,
        1.0,
        10.0,
        10.0,
        10.0,
        10.0,
        10.0,
        10.0,
        10.0,
        10.0,
        100.0,
        100.0,
        100.0,
        100.0,
        100.0,
        100.0,
        100.0,
        100.0
    ],
    "param_gamma": [
        "scale",
        "scale",
        "scale",
        "scale",
        "auto",
        "auto",
        "auto",
        "auto",
        "scale",
        "scale",
        "scale",
        "scale",
        "auto",
        "auto",
        "auto",
        "auto",
        "scale",
        "scale",
        "scale",
        "scale",
        "auto",
        "auto",
        "auto",
        "auto",
        "scale",
        "scale",
        "scale",
        "scale",
        "auto",
        "auto",
        "auto",
        "auto"
    ],
    "param_kernel": [
        "linear",
        "poly",
        "rbf",
        "sigmoid",
        "linear",
        "poly",
        "rbf",
        "sigmoid",
        "linear",
        "poly",
        "rbf",
        "sigmoid",
        "linear",
        "poly",
        "rbf",
        "sigmoid",
        "linear",
        "poly",
        "rbf",
        "sigmoid",
        "linear",
        "poly",
        "rbf",
        "sigmoid",
        "linear",
        "poly",
        "rbf",
        "sigmoid",
        "linear",
        "poly",
        "rbf",
        "sigmoid"
    ],
    "params": [
        {
            "C": 0.1,
            "gamma": "scale",
            "kernel": "linear"
        },
        {
            "C": 0.1,
            "gamma": "scale",
            "kernel": "poly"
        },
        {
            "C": 0.1,
            "gamma": "scale",
            "kernel": "rbf"
        },
        {
            "C": 0.1,
            "gamma": "scale",
            "kernel": "sigmoid"
        },
        {
            "C": 0.1,
            "gamma": "auto",
            "kernel": "linear"
        },
        {
            "C": 0.1,
            "gamma": "auto",
            "kernel": "poly"
        },
        {
            "C": 0.1,
            "gamma": "auto",
            "kernel": "rbf"
        },
        {
            "C": 0.1,
            "gamma": "auto",
            "kernel": "sigmoid"
        },
        {
            "C": 1,
            "gamma": "scale",
            "kernel": "linear"
        },
        {
            "C": 1,
            "gamma": "scale",
            "kernel": "poly"
        },
        {
            "C": 1,
            "gamma": "scale",
            "kernel": "rbf"
        },
        {
            "C": 1,
            "gamma": "scale",
            "kernel": "sigmoid"
        },
        {
            "C": 1,
            "gamma": "auto",
            "kernel": "linear"
        },
        {
            "C": 1,
            "gamma": "auto",
            "kernel": "poly"
        },
        {
            "C": 1,
            "gamma": "auto",
            "kernel": "rbf"
        },
        {
            "C": 1,
            "gamma": "auto",
            "kernel": "sigmoid"
        },
        {
            "C": 10,
            "gamma": "scale",
            "kernel": "linear"
        },
        {
            "C": 10,
            "gamma": "scale",
            "kernel": "poly"
        },
        {
            "C": 10,
            "gamma": "scale",
            "kernel": "rbf"
        },
        {
            "C": 10,
            "gamma": "scale",
            "kernel": "sigmoid"
        },
        {
            "C": 10,
            "gamma": "auto",
            "kernel": "linear"
        },
        {
            "C": 10,
            "gamma": "auto",
            "kernel": "poly"
        },
        {
            "C": 10,
            "gamma": "auto",
            "kernel": "rbf"
        },
        {
            "C": 10,
            "gamma": "auto",
            "kernel": "sigmoid"
        },
        {
            "C": 100,
            "gamma": "scale",
            "kernel": "linear"
        },
        {
            "C": 100,
            "gamma": "scale",
            "kernel": "poly"
        },
        {
            "C": 100,
            "gamma": "scale",
            "kernel": "rbf"
        },
        {
            "C": 100,
            "gamma": "scale",
            "kernel": "sigmoid"
        },
        {
            "C": 100,
            "gamma": "auto",
            "kernel": "linear"
        },
        {
            "C": 100,
            "gamma": "auto",
            "kernel": "poly"
        },
        {
            "C": 100,
            "gamma": "auto",
            "kernel": "rbf"
        },
        {
            "C": 100,
            "gamma": "auto",
            "kernel": "sigmoid"
        }
    ],
    "split0_test_score": [
        -19.616225204230727,
        -19.9790700377717,
        -20.100397548065864,
        -20.0536303728032,
        -19.616225204230727,
        -19.979300075785446,
        -20.10040577851302,
        -20.053622793089765,
        -19.57058754140007,
        -19.767083712871514,
        -19.645500907269497,
        -20.192042966941344,
        -19.57058754140007,
        -19.7670250850546,
        -19.64552180460072,
        -20.178153719255803,
        -19.547037896960447,
        -20.231536074738393,
        -19.662748302622955,
        -111.49407705286109,
        -19.547037896960447,
        -20.231331456191942,
        -19.662682492571374,
        -111.40439776142452,
        -19.533165586120887,
        -21.97610613810176,
        -20.439784548952336,
        -1039.7238691164448,
        -19.533165586120887,
        -21.974132703386616,
        -20.43937177813672,
        -1039.8521163294818
    ],
    "split1_test_score": [
        -20.18086795259683,
        -20.141287966538172,
        -20.206092708014605,
        -20.212947463234155,
        -20.18086795259683,
        -20.13930518186367,
        -20.20605771045007,
        -20.21259905074676,
        -20.215649734639417,
        -19.962144852741478,
        -19.958089819993774,
        -20.691857032571882,
        -20.215649734639417,
        -19.96243070868925,
        -19.957921556179976,
        -20.717570672527682,
        -20.261537763214264,
        -20.044066594129564,
        -19.8649271534652,
        -96.61647419777776,
        -20.261537763214264,
        -20.048198479051663,
        -19.86606379693977,
        -97.2367914329276,
        -20.317479302047104,
        -21.067727450996692,
        -20.518854179535666,
        -944.7744032532931,
        -20.317479302047104,
        -21.08008594203885,
        -20.5251584018168,
        -975.4734362348019
    ],
    "split2_test_score": [
        -20.31324048918687,
        -20.185771819498235,
        -20.24492952063365,
        -20.24797556276243,
        -20.31324048918687,
        -20.184478541805532,
        -20.244846629956932,
        -20.24770524554843,
        -20.38029600208987,
        -20.165639157262895,
        -20.085806807107883,
        -20.759086436058574,
        -20.38029600208987,
        -20.165733106692098,
        -20.08547360086405,
        -20.76779728925255,
        -20.437409174117196,
        -20.223186601419005,
        -20.092197413571512,
        -98.48454026225421,
        -20.437409174117196,
        -20.222991331443133,
        -20.09171646842682,
        -99.05924030108227,
        -20.47129162539261,
        -21.159894503614723,
        -20.669977975291584,
        -915.7152275948871,
        -20.47129162539261,
        -21.161153658138577,
        -20.673692626574258,
        -926.3316402973626
    ],
    "split3_test_score": [
        -19.987762239071646,
        -20.40862023893053,
        -20.559146586236864,
        -20.49038958923776,
        -19.987762239071646,
        -20.410863478433257,
        -20.559083512664866,
        -20.490853022973436,
        -19.917450313338062,
        -19.848994901784213,
        -19.90793319954779,
        -20.430448105083283,
        -19.917450313338062,
        -19.851253479152863,
        -19.907989910755393,
        -20.425378756084726,
        -19.896405364617685,
        -19.795357584443394,
        -19.52216783429828,
        -107.02683180208489,
        -19.896405364617685,
        -19.793480711309307,
        -19.522356777596073,
        -106.63863237052558,
        -19.899376874646723,
        -21.47531914078942,
        -19.884234512627966,
        -1077.5983180342346,
        -19.899376874646723,
        -21.465449039967613,
        -19.88184235258701,
        -1074.0974282870984
    ],
    "split4_test_score": [
        -19.280897572871247,
        -19.681677428238572,
        -19.79352405822516,
        -19.77549125539257,
        -19.280897572871247,
        -19.68431730778415,
        -19.79370632474564,
        -19.776035722766622,
        -19.233781030284533,
        -19.264204103534087,
        -19.248120396684318,
        -19.98085301883759,
        -19.233781030284533,
        -19.26622295209396,
        -19.248383515637776,
        -19.974346606426746,
        -19.229531838783863,
        -19.399835303939877,
        -19.069023171261037,
        -106.54188044470294,
        -19.229531838783863,
        -19.389756467524936,
        -19.067967610303853,
        -105.75886578199814,
        -19.24245565209813,
        -22.590090455731385,
        -19.86275701313793,
        -1107.8899997995893,
        -19.24245565209813,
        -22.579659313171756,
        -19.856420123384137,
        -1099.0945845967597
    ],
    "mean_test_score": [
        -19.875798691591463,
        -20.07928549819544,
        -20.180818084235227,
        -20.156086848686023,
        -19.875798691591463,
        -20.07965291713441,
        -20.180819991266105,
        -20.156163167025003,
        -19.86355292435039,
        -19.801613345638835,
        -19.76909022612065,
        -20.410857511898534,
        -19.86355292435039,
        -19.802533066336554,
        -19.769058077607582,
        -20.412649408709505,
        -19.87438440753869,
        -19.938796431734048,
        -19.642212775043795,
        -104.03276075193617,
        -19.87438440753869,
        -19.937151689104194,
        -19.64215742916758,
        -104.01958552959161,
        -19.89275380806109,
        -21.653827537846798,
        -20.2751216459091,
        -1017.1403635596898,
        -19.89275380806109,
        -21.65209613134068,
        -20.275297056499788,
        -1022.9698411491008
    ],
    "std_test_score": [
        0.37901033037461906,
        0.241570002261461,
        0.2467167053654516,
        0.23612933857804816,
        0.37901033037461906,
        0.2410842910594013,
        0.246634580289246,
        0.2360481573543056,
        0.418650655059703,
        0.3001770001857585,
        0.29731851383442337,
        0.29441181182794385,
        0.418650655059703,
        0.29958122749693017,
        0.297137497259708,
        0.3054068124088183,
        0.44505282934945234,
        0.3126371297449376,
        0.3450990254529086,
        5.598489812153524,
        0.44505282934945234,
        0.31649970127070737,
        0.3454576135331434,
        5.196754263857048,
        0.46202445765182676,
        0.5656500949384625,
        0.33623452581949526,
        74.73227666369851,
        0.46202445765182676,
        0.5598461066044181,
        0.34009843444105736,
        63.70065665349999
    ],
    "rank_test_score": [
        11,
        17,
        21,
        19,
        11,
        18,
        22,
        20,
        7,
        5,
        4,
        25,
        7,
        6,
        3,
        26,
        9,
        16,
        2,
        30,
        9,
        15,
        1,
        29,
        13,
        28,
        23,
        31,
        13,
        27,
        24,
        32
    ]
}