{
    "mean_fit_time": [
        0.200378942489624,
        0.22233858108520507,
        0.25537686347961425,
        0.24941868782043458,
        0.17265753746032714,
        0.19311962127685547,
        0.22339162826538086,
        0.24975137710571288,
        0.2008920669555664,
        0.17803258895874025,
        0.20258893966674804,
        0.23270559310913086,
        0.18010387420654297,
        0.1870368480682373,
        0.22046303749084473,
        0.25769243240356443,
        0.27559075355529783,
        0.20390219688415528,
        0.2189432144165039,
        0.3056769371032715,
        0.3001814365386963,
        0.2201991558074951,
        0.25133166313171384,
        0.2986161708831787,
        1.0095197677612304,
        0.381272554397583,
        0.28225297927856446,
        0.2182065486907959,
        0.9042433261871338,
        0.25744190216064455,
        0.24842095375061035,
        0.18270692825317383
    ],
    "std_fit_time": [
        0.008519183743850902,
        0.016613745966240268,
        0.01637763094760748,
        0.005028774599706066,
        0.010253877299575156,
        0.00996499993041198,
        0.0060571913574994345,
        0.01657482450065031,
        0.01404387174605707,
        0.014645479694499258,
        0.01527533479366766,
        0.01261049433396378,
        0.009609644721022282,
        0.01957655970185582,
        0.016087684849550383,
        0.008628424278525122,
        0.01450603220296231,
        0.009472797994555134,
        0.017931502849382188,
        0.030764803216294767,
        0.017844282136522477,
        0.0046630233556162635,
        0.009889437746983115,
        0.00489706148739439,
        0.15914152900506456,
        0.02591940241782051,
        0.015617479249915724,
        0.028521470121766493,
        0.15664575482488788,
        0.06148745910628858,
        0.03355217080038745,
        0.007118545908754056
    ],
    "mean_score_time": [
        0.028016424179077147,
        0.05010581016540527,
        0.08696236610412597,
        0.04805388450622559,
        0.04851212501525879,
        0.03171067237854004,
        0.09498391151428223,
        0.055068683624267575,
        0.03303351402282715,
        0.030927038192749022,
        0.09151220321655273,
        0.057703065872192386,
        0.03800444602966309,
        0.032838964462280275,
        0.09468770027160645,
        0.05239701271057129,
        0.03919296264648438,
        0.035794401168823244,
        0.087776517868042,
        0.05488309860229492,
        0.03845853805541992,
        0.03697757720947266,
        0.10646438598632812,
        0.05397467613220215,
        0.04616246223449707,
        0.037554597854614256,
        0.09567012786865234,
        0.03748998641967773,
        0.024619007110595705,
        0.03479022979736328,
        0.06978521347045899,
        0.0343381404876709
    ],
    "std_score_time": [
        0.0015184160556334894,
        0.016650404691378875,
        0.013726725613416979,
        0.0022101692529066714,
        0.013159445143030763,
        0.005330955297850339,
        0.01174816331883793,
        0.009055986424148461,
        0.005115722904509996,
        0.0034015907751842062,
        0.004554444743513339,
        0.0041830123250828225,
        0.007035378184791845,
        0.008415537150195442,
        0.004433126288955911,
        0.008309914320239873,
        0.0054290719422423455,
        0.008595300817747606,
        0.009748499766329096,
        0.00851409636148093,
        0.006798017060353709,
        0.008664090551156238,
        0.009653052969633393,
        0.011907819332905573,
        0.015052573396775458,
        0.010165030095894442,
        0.006778095404493558,
        0.0033754630768516062,
        0.0039725207366570255,
        0.01117469770443349,
        0.011740628623411083,
        0.0016201761345837312
    ],
    "param_C": [
        0.1,
        0.1,
        0.1,
        0.1,
        0.1,
        0.1,
        0.1,
        0.1,
        1.0,
        1.0,
        1.0,
        1.0,
        1.0,
        1.0,
        1.0,
        1.0,
        10.0,
        10.0,
        10.0,
        10.0,
        10.0,
        10.0,
        10.0,
        10.0,
        100.0,
        100.0,
        100.0,
        100.0,
        100.0,
        100.0,
        100.0,
        100.0
    ],
    "param_gamma": [
        "scale",
        "scale",
        "scale",
        "scale",
        "auto",
        "auto",
        "auto",
        "auto",
        "scale",
        "scale",
        "scale",
        "scale",
        "auto",
        "auto",
        "auto",
        "auto",
        "scale",
        "scale",
        "scale",
        "scale",
        "auto",
        "auto",
        "auto",
        "auto",
        "scale",
        "scale",
        "scale",
        "scale",
        "auto",
        "auto",
        "auto",
        "auto"
    ],
    "param_kernel": [
        "linear",
        "poly",
        "rbf",
        "sigmoid",
        "linear",
        "poly",
        "rbf",
        "sigmoid",
        "linear",
        "poly",
        "rbf",
        "sigmoid",
        "linear",
        "poly",
        "rbf",
        "sigmoid",
        "linear",
        "poly",
        "rbf",
        "sigmoid",
        "linear",
        "poly",
        "rbf",
        "sigmoid",
        "linear",
        "poly",
        "rbf",
        "sigmoid",
        "linear",
        "poly",
        "rbf",
        "sigmoid"
    ],
    "params": [
        {
            "C": 0.1,
            "gamma": "scale",
            "kernel": "linear"
        },
        {
            "C": 0.1,
            "gamma": "scale",
            "kernel": "poly"
        },
        {
            "C": 0.1,
            "gamma": "scale",
            "kernel": "rbf"
        },
        {
            "C": 0.1,
            "gamma": "scale",
            "kernel": "sigmoid"
        },
        {
            "C": 0.1,
            "gamma": "auto",
            "kernel": "linear"
        },
        {
            "C": 0.1,
            "gamma": "auto",
            "kernel": "poly"
        },
        {
            "C": 0.1,
            "gamma": "auto",
            "kernel": "rbf"
        },
        {
            "C": 0.1,
            "gamma": "auto",
            "kernel": "sigmoid"
        },
        {
            "C": 1,
            "gamma": "scale",
            "kernel": "linear"
        },
        {
            "C": 1,
            "gamma": "scale",
            "kernel": "poly"
        },
        {
            "C": 1,
            "gamma": "scale",
            "kernel": "rbf"
        },
        {
            "C": 1,
            "gamma": "scale",
            "kernel": "sigmoid"
        },
        {
            "C": 1,
            "gamma": "auto",
            "kernel": "linear"
        },
        {
            "C": 1,
            "gamma": "auto",
            "kernel": "poly"
        },
        {
            "C": 1,
            "gamma": "auto",
            "kernel": "rbf"
        },
        {
            "C": 1,
            "gamma": "auto",
            "kernel": "sigmoid"
        },
        {
            "C": 10,
            "gamma": "scale",
            "kernel": "linear"
        },
        {
            "C": 10,
            "gamma": "scale",
            "kernel": "poly"
        },
        {
            "C": 10,
            "gamma": "scale",
            "kernel": "rbf"
        },
        {
            "C": 10,
            "gamma": "scale",
            "kernel": "sigmoid"
        },
        {
            "C": 10,
            "gamma": "auto",
            "kernel": "linear"
        },
        {
            "C": 10,
            "gamma": "auto",
            "kernel": "poly"
        },
        {
            "C": 10,
            "gamma": "auto",
            "kernel": "rbf"
        },
        {
            "C": 10,
            "gamma": "auto",
            "kernel": "sigmoid"
        },
        {
            "C": 100,
            "gamma": "scale",
            "kernel": "linear"
        },
        {
            "C": 100,
            "gamma": "scale",
            "kernel": "poly"
        },
        {
            "C": 100,
            "gamma": "scale",
            "kernel": "rbf"
        },
        {
            "C": 100,
            "gamma": "scale",
            "kernel": "sigmoid"
        },
        {
            "C": 100,
            "gamma": "auto",
            "kernel": "linear"
        },
        {
            "C": 100,
            "gamma": "auto",
            "kernel": "poly"
        },
        {
            "C": 100,
            "gamma": "auto",
            "kernel": "rbf"
        },
        {
            "C": 100,
            "gamma": "auto",
            "kernel": "sigmoid"
        }
    ],
    "split0_test_score": [
        -203.9716291871779,
        -215.35845128724495,
        -220.093573805471,
        -218.97666590457044,
        -203.9716291871779,
        -217.92622555054322,
        -220.31007080996196,
        -219.45244860718128,
        -203.72654294223193,
        -208.2215949863667,
        -206.51943851110434,
        -241.50415617838524,
        -203.72654294223193,
        -209.0115008156849,
        -206.3934488601789,
        -218.40317849280174,
        -204.0563671008307,
        -206.59606690792003,
        -205.78495692867924,
        -11928.773826296347,
        -204.0563671008307,
        -206.8635634417593,
        -205.6945223428113,
        -6870.773402722795,
        -204.23204983541325,
        -208.08225567008586,
        -211.07179923789178,
        -1189549.7350354292,
        -204.23204983541325,
        -207.0096182554681,
        -209.52228641092083,
        -694773.30618304
    ],
    "split1_test_score": [
        -217.15968799646427,
        -223.34861655899135,
        -227.39602616591063,
        -227.34784024177017,
        -217.15968799646427,
        -225.44100964718035,
        -227.6064402721251,
        -227.66943153590165,
        -216.91538498775412,
        -214.52576821117748,
        -216.77924187219207,
        -260.3669910506036,
        -216.91538498775412,
        -216.07162061516502,
        -216.80909715064266,
        -222.93546811406424,
        -217.31741130330425,
        -214.93456503808156,
        -214.23350355188254,
        -11654.366233649393,
        -217.31741130330425,
        -213.895710590252,
        -214.06617400233225,
        -6738.367813735124,
        -217.274372700656,
        -223.6775177584854,
        -216.85986062322,
        -1195738.0222682003,
        -217.274372700656,
        -220.89370895073705,
        -215.9125279456518,
        -704157.181281923
    ],
    "split2_test_score": [
        -214.56073204633554,
        -217.68646332991048,
        -220.86606975378,
        -219.8629285403261,
        -214.56073204633554,
        -219.0277229491036,
        -220.96424042552783,
        -220.14125295273433,
        -216.17906145859874,
        -213.29155089210488,
        -213.07452964977034,
        -247.72359025071094,
        -216.17906145859874,
        -213.839487183753,
        -212.93463146345314,
        -219.40889189924272,
        -216.685207489723,
        -217.2341548789729,
        -211.68236047886404,
        -11808.480161733285,
        -216.685207489723,
        -216.4302359550961,
        -211.35277646428707,
        -6847.699765955125,
        -216.72391484791297,
        -227.3779066935381,
        -218.44476097493722,
        -1170541.9570336682,
        -216.72391484791297,
        -223.90083103671563,
        -216.3795969983888,
        -692817.7006079666
    ],
    "split3_test_score": [
        -198.0711077528062,
        -210.03951198760538,
        -214.29060524365454,
        -213.33823309031516,
        -198.0711077528062,
        -212.85766410600436,
        -214.58772224690765,
        -213.82344648400456,
        -196.73301487009107,
        -202.11642594679245,
        -198.46027824670264,
        -231.510541928218,
        -196.73301487009107,
        -202.85191611311635,
        -198.5694348978025,
        -204.1682861302547,
        -196.92430737285275,
        -198.05318183642726,
        -195.72200207943382,
        -13785.97554438384,
        -196.92430737285275,
        -198.43614850652622,
        -194.66990861007307,
        -7389.303744298704,
        -197.05437688085695,
        -204.89086207381936,
        -195.34418965845433,
        -1381772.1594773713,
        -197.05437688085695,
        -203.42728528522352,
        -194.81539868020496,
        -779198.0343877077
    ],
    "split4_test_score": [
        -210.87949004351924,
        -217.88668407579655,
        -221.81122461032038,
        -221.69353482989467,
        -210.87949004351924,
        -220.0063685972423,
        -222.10887532475087,
        -222.00135551002782,
        -210.9602076102271,
        -211.72378950786532,
        -209.5471880553658,
        -250.97286590999067,
        -210.9602076102271,
        -212.49206338764856,
        -209.79595558340537,
        -216.58452103107268,
        -211.3755029532717,
        -211.69114534198772,
        -207.88228971310602,
        -11145.84755885923,
        -211.3755029532717,
        -210.62847456257813,
        -207.92016982359448,
        -6424.9486375808265,
        -211.60454459383453,
        -218.7927388719883,
        -212.60372395438083,
        -1140112.498846317,
        -211.60454459383453,
        -217.85129530648857,
        -212.634831876062,
        -670611.2257857419
    ],
    "mean_test_score": [
        -208.92852940526063,
        -216.86394544790974,
        -220.8914999158273,
        -220.2438405213753,
        -208.92852940526063,
        -219.05179817001476,
        -221.11546981585465,
        -220.61758701796992,
        -208.9028423737806,
        -209.97582590886137,
        -208.87613526702702,
        -246.41562906358166,
        -208.9028423737806,
        -210.85331762307356,
        -208.9005135910965,
        -216.3000691334872,
        -209.27175924399648,
        -209.7018228006779,
        -207.06102255039315,
        -12064.688664984418,
        -209.27175924399648,
        -209.25082661124233,
        -206.74071024861965,
        -6854.218672858515,
        -209.37785177173473,
        -216.5642562135834,
        -210.86486688977683,
        -1215542.8745321971,
        -209.37785177173473,
        -214.61654776692657,
        -209.8529283822457,
        -708311.4896492759
    ],
    "std_test_score": [
        7.010483442201772,
        4.303786567849218,
        4.180045418306655,
        4.516783480624643,
        7.010483442201772,
        4.034055481556538,
        4.156983959082985,
        4.458432764951514,
        7.697736450434779,
        4.463157576325512,
        6.238269284306482,
        9.627085330971445,
        7.697736450434779,
        4.6097309621893645,
        6.207063360721001,
        6.4090161384899,
        7.794579558424309,
        6.832445799471839,
        6.3824361560481755,
        901.0635535486315,
        7.794579558424309,
        6.2876556447040155,
        6.680171557752933,
        311.2319950304539,
        7.741125982413883,
        8.725962702530738,
        8.214044202620103,
        85340.34778380446,
        7.741125982413883,
        7.9891079787754755,
        7.915702884717752,
        37112.82880290021
    ],
    "rank_test_score": [
        7,
        22,
        26,
        24,
        7,
        23,
        27,
        25,
        5,
        16,
        3,
        28,
        5,
        17,
        4,
        20,
        10,
        14,
        2,
        30,
        10,
        9,
        1,
        29,
        12,
        21,
        18,
        32,
        12,
        19,
        15,
        31
    ]
}