{
    "mean_fit_time": [
        0.14535188674926758,
        0.17411599159240723,
        0.2232497215270996,
        0.22152576446533204,
        0.14635324478149414,
        0.15430645942687987,
        0.19739813804626466,
        0.21508412361145018,
        0.17121620178222657,
        0.16208996772766113,
        0.18358874320983887,
        0.21534690856933594,
        0.17707324028015137,
        0.18214101791381837,
        0.21188364028930665,
        0.23861346244812012,
        0.3356943607330322,
        0.2179274082183838,
        0.1993535041809082,
        0.2355334758758545,
        0.29776320457458494,
        0.19530563354492186,
        0.1929479122161865,
        0.23903417587280273,
        1.463945484161377,
        0.5803060531616211,
        0.2980818748474121,
        0.23822054862976075,
        1.3644560337066651,
        0.5596867084503174,
        0.312506103515625,
        0.22637495994567872
    ],
    "std_fit_time": [
        0.009028261907737657,
        0.010761022060749671,
        0.012727601136028522,
        0.017008440143945897,
        0.011529159314563862,
        0.010125069939621468,
        0.014347942037936587,
        0.02334250368755897,
        0.023240344075286953,
        0.011062231522070694,
        0.009288955515370371,
        0.015096295536291176,
        0.010867489294363595,
        0.01886125570321604,
        0.015313211700486967,
        0.011338324990838691,
        0.017096481644913147,
        0.01378657265541123,
        0.012610145680697047,
        0.00433219194884003,
        0.02403086711425185,
        0.00886220468623849,
        0.01695562176775507,
        0.014887074470292723,
        0.20088328364823738,
        0.031006645391023453,
        0.0212192476036835,
        0.021014846909285928,
        0.18915993669231856,
        0.03483306987307273,
        0.014765546853563093,
        0.01753602980362574
    ],
    "mean_score_time": [
        0.02966160774230957,
        0.030880069732666014,
        0.08470673561096191,
        0.045348834991455075,
        0.026882123947143555,
        0.03162937164306641,
        0.06474184989929199,
        0.044945049285888675,
        0.029472541809082032,
        0.03223118782043457,
        0.07850313186645508,
        0.046824169158935544,
        0.03158316612243652,
        0.03177995681762695,
        0.0766573429107666,
        0.051056528091430665,
        0.03419828414916992,
        0.04075980186462402,
        0.0782616138458252,
        0.04838438034057617,
        0.031347799301147464,
        0.032024478912353514,
        0.0695648193359375,
        0.04527182579040527,
        0.03487272262573242,
        0.03134617805480957,
        0.07698869705200195,
        0.04398403167724609,
        0.02381739616394043,
        0.03303790092468262,
        0.07272987365722657,
        0.03545103073120117
    ],
    "std_score_time": [
        0.003837978468401644,
        0.004851686252330689,
        0.0018776720150238293,
        0.005942426266031134,
        0.004325717281354655,
        0.0035686293602197696,
        0.013144092520671306,
        0.0042627956581152366,
        0.004667546061081417,
        0.004661900506234359,
        0.008174390195600673,
        0.006580147877211874,
        0.006943293371973316,
        0.0010142416633057104,
        0.004161957410958369,
        0.00796573566457736,
        0.0037524789978764287,
        0.013280035868458046,
        0.004992214728873413,
        0.006345418857190294,
        0.004072677561260867,
        0.0060479915669176335,
        0.009110267795902918,
        0.004569320738085686,
        0.012545539993252416,
        0.004207158814433844,
        0.010753108196784487,
        0.002892911854445554,
        0.0035533023285535103,
        0.007803454958537042,
        0.009402916956291427,
        0.002565385970040385
    ],
    "param_C": [
        0.1,
        0.1,
        0.1,
        0.1,
        0.1,
        0.1,
        0.1,
        0.1,
        1.0,
        1.0,
        1.0,
        1.0,
        1.0,
        1.0,
        1.0,
        1.0,
        10.0,
        10.0,
        10.0,
        10.0,
        10.0,
        10.0,
        10.0,
        10.0,
        100.0,
        100.0,
        100.0,
        100.0,
        100.0,
        100.0,
        100.0,
        100.0
    ],
    "param_gamma": [
        "scale",
        "scale",
        "scale",
        "scale",
        "auto",
        "auto",
        "auto",
        "auto",
        "scale",
        "scale",
        "scale",
        "scale",
        "auto",
        "auto",
        "auto",
        "auto",
        "scale",
        "scale",
        "scale",
        "scale",
        "auto",
        "auto",
        "auto",
        "auto",
        "scale",
        "scale",
        "scale",
        "scale",
        "auto",
        "auto",
        "auto",
        "auto"
    ],
    "param_kernel": [
        "linear",
        "poly",
        "rbf",
        "sigmoid",
        "linear",
        "poly",
        "rbf",
        "sigmoid",
        "linear",
        "poly",
        "rbf",
        "sigmoid",
        "linear",
        "poly",
        "rbf",
        "sigmoid",
        "linear",
        "poly",
        "rbf",
        "sigmoid",
        "linear",
        "poly",
        "rbf",
        "sigmoid",
        "linear",
        "poly",
        "rbf",
        "sigmoid",
        "linear",
        "poly",
        "rbf",
        "sigmoid"
    ],
    "params": [
        {
            "C": 0.1,
            "gamma": "scale",
            "kernel": "linear"
        },
        {
            "C": 0.1,
            "gamma": "scale",
            "kernel": "poly"
        },
        {
            "C": 0.1,
            "gamma": "scale",
            "kernel": "rbf"
        },
        {
            "C": 0.1,
            "gamma": "scale",
            "kernel": "sigmoid"
        },
        {
            "C": 0.1,
            "gamma": "auto",
            "kernel": "linear"
        },
        {
            "C": 0.1,
            "gamma": "auto",
            "kernel": "poly"
        },
        {
            "C": 0.1,
            "gamma": "auto",
            "kernel": "rbf"
        },
        {
            "C": 0.1,
            "gamma": "auto",
            "kernel": "sigmoid"
        },
        {
            "C": 1,
            "gamma": "scale",
            "kernel": "linear"
        },
        {
            "C": 1,
            "gamma": "scale",
            "kernel": "poly"
        },
        {
            "C": 1,
            "gamma": "scale",
            "kernel": "rbf"
        },
        {
            "C": 1,
            "gamma": "scale",
            "kernel": "sigmoid"
        },
        {
            "C": 1,
            "gamma": "auto",
            "kernel": "linear"
        },
        {
            "C": 1,
            "gamma": "auto",
            "kernel": "poly"
        },
        {
            "C": 1,
            "gamma": "auto",
            "kernel": "rbf"
        },
        {
            "C": 1,
            "gamma": "auto",
            "kernel": "sigmoid"
        },
        {
            "C": 10,
            "gamma": "scale",
            "kernel": "linear"
        },
        {
            "C": 10,
            "gamma": "scale",
            "kernel": "poly"
        },
        {
            "C": 10,
            "gamma": "scale",
            "kernel": "rbf"
        },
        {
            "C": 10,
            "gamma": "scale",
            "kernel": "sigmoid"
        },
        {
            "C": 10,
            "gamma": "auto",
            "kernel": "linear"
        },
        {
            "C": 10,
            "gamma": "auto",
            "kernel": "poly"
        },
        {
            "C": 10,
            "gamma": "auto",
            "kernel": "rbf"
        },
        {
            "C": 10,
            "gamma": "auto",
            "kernel": "sigmoid"
        },
        {
            "C": 100,
            "gamma": "scale",
            "kernel": "linear"
        },
        {
            "C": 100,
            "gamma": "scale",
            "kernel": "poly"
        },
        {
            "C": 100,
            "gamma": "scale",
            "kernel": "rbf"
        },
        {
            "C": 100,
            "gamma": "scale",
            "kernel": "sigmoid"
        },
        {
            "C": 100,
            "gamma": "auto",
            "kernel": "linear"
        },
        {
            "C": 100,
            "gamma": "auto",
            "kernel": "poly"
        },
        {
            "C": 100,
            "gamma": "auto",
            "kernel": "rbf"
        },
        {
            "C": 100,
            "gamma": "auto",
            "kernel": "sigmoid"
        }
    ],
    "split0_test_score": [
        -196.38424835627083,
        -214.857628406719,
        -217.33240920655535,
        -212.9629257209455,
        -196.38424835627083,
        -214.83812155682668,
        -217.3328165177894,
        -212.9513013091604,
        -196.2722140154114,
        -207.92162424972662,
        -199.2105821064918,
        -215.42978149794413,
        -196.2722140154114,
        -207.89748671839706,
        -199.21089949186464,
        -215.55443726169193,
        -196.37007854434037,
        -209.02029815640398,
        -202.0856305826898,
        -7323.255656999109,
        -196.37007854434037,
        -209.04577372928668,
        -202.10097223642575,
        -7086.356815440159,
        -196.5210711089322,
        -220.98096771051735,
        -218.56825729550732,
        -726941.1223710522,
        -196.5210711089322,
        -221.05521583974243,
        -218.61414567152895,
        -717040.9461564812
    ],
    "split1_test_score": [
        -211.66775660463176,
        -222.6992635903901,
        -225.42564265100464,
        -221.31425389393723,
        -211.66775660463176,
        -222.67445490159344,
        -225.4265223862327,
        -221.31085418561534,
        -212.97240461671583,
        -214.08998241641876,
        -212.4666931298953,
        -215.5626468485787,
        -212.97240461671583,
        -214.08451805015682,
        -212.4672835049756,
        -215.57394795536283,
        -213.08867480817938,
        -216.58691412037618,
        -213.17014199251943,
        -7427.987376291162,
        -213.08867480817938,
        -216.60780279292413,
        -213.175960947637,
        -7557.472920075351,
        -212.94684742921206,
        -236.56260957374852,
        -224.43239679497418,
        -723944.2253025946,
        -212.94684742921206,
        -236.62033987019183,
        -224.4628255665691,
        -724563.8972165815
    ],
    "split2_test_score": [
        -211.80038836012994,
        -216.15790422475243,
        -219.03607268672792,
        -216.59026964315274,
        -211.80038836012994,
        -216.10348545109574,
        -219.03767101369567,
        -216.56846628798596,
        -213.30140478032004,
        -211.98350926933065,
        -208.5889223524865,
        -222.90774608929857,
        -213.30140478032004,
        -211.9641136379413,
        -208.57534812576424,
        -224.30617983931327,
        -213.92238710368414,
        -212.41804279805064,
        -205.67772010406176,
        -7899.809839457499,
        -213.92238710368414,
        -212.57095416163014,
        -205.70236700873357,
        -8201.19104620303,
        -213.61831896239082,
        -239.8303231333409,
        -225.617563762163,
        -821886.6483428829,
        -213.61831896239082,
        -240.25022877889631,
        -225.90336293472367,
        -838301.7151686067
    ],
    "split3_test_score": [
        -194.57398974700763,
        -210.57928695838572,
        -213.35908051442934,
        -209.27569266270774,
        -194.57398974700763,
        -210.74284972982858,
        -213.35503942362723,
        -209.31747945401608,
        -194.00732420622907,
        -203.37893657650315,
        -197.11305378876656,
        -202.20815656068604,
        -194.00732420622907,
        -203.4412254293956,
        -197.07736044784303,
        -201.3603474220864,
        -193.69388510328344,
        -200.82401604205984,
        -192.79312132264477,
        -8155.4660126881045,
        -193.69388510328344,
        -200.5922645376924,
        -192.76163065965477,
        -7837.51824052031,
        -193.30899653078703,
        -245.3627946592354,
        -213.47074383422085,
        -1088036.7342473522,
        -193.30899653078703,
        -244.102514226649,
        -212.8533607863945,
        -1044315.4918028933
    ],
    "split4_test_score": [
        -200.91425970536193,
        -215.54139106215268,
        -218.86996133265257,
        -214.1593428326547,
        -200.91425970536193,
        -215.54255079672822,
        -218.8698700752411,
        -214.15926788937512,
        -201.25393913362942,
        -205.64712951142258,
        -202.728228130643,
        -210.80948229744965,
        -201.25393913362942,
        -205.64791490215111,
        -202.7279512428289,
        -210.80652726734047,
        -201.78298358647226,
        -210.0346953791996,
        -201.21850449211612,
        -8274.829530153143,
        -201.78298358647226,
        -210.0323961588181,
        -201.2181702030671,
        -7986.283104340716,
        -201.22710381226995,
        -243.89685023356807,
        -220.46747009141345,
        -876269.122992011,
        -201.22710381226995,
        -243.88971877058984,
        -220.465791573287,
        -854032.5220980177
    ],
    "mean_test_score": [
        -203.0681285546804,
        -215.96709484847997,
        -218.80463327827397,
        -214.86049695067953,
        -203.0681285546804,
        -215.9802924872145,
        -218.80438388331723,
        -214.86147382523058,
        -203.56145735046115,
        -208.60423640468034,
        -204.02149590165664,
        -213.38356265879142,
        -203.56145735046115,
        -208.60705174760838,
        -204.01176856265528,
        -213.52028794915896,
        -203.77160182919192,
        -209.776793299218,
        -202.9890236988064,
        -7816.269683117804,
        -203.77160182919192,
        -209.7698382760703,
        -202.99182021110363,
        -7733.764425315913,
        -203.52446756871842,
        -237.32670906208205,
        -220.51128635565573,
        -847415.5706511785,
        -203.52446756871842,
        -237.18360349721388,
        -220.45989730650064,
        -835650.9144885162
    ],
    "std_test_score": [
        7.371156809051732,
        3.8935618024445002,
        3.8914543730956273,
        3.998137687833141,
        7.371156809051732,
        3.840676133056274,
        3.892872852533693,
        3.9846218416903474,
        8.162985645472283,
        3.9503694314749263,
        5.739803935794203,
        6.799427632176811,
        8.162985645472283,
        3.9298406222604405,
        5.746382131688811,
        7.482237598111705,
        8.3683190001787,
        5.179671099869262,
        6.615006284470724,
        381.0869246701288,
        8.3683190001787,
        5.280626378965921,
        6.628122044851463,
        385.5472711574724,
        8.358808155738263,
        8.738199110985743,
        4.354209384475319,
        133523.0793068186,
        8.358808155738263,
        8.516920249751736,
        4.6243050153075025,
        118570.2037296423
    ],
    "rank_test_score": [
        3,
        21,
        24,
        19,
        3,
        22,
        23,
        20,
        7,
        13,
        12,
        17,
        7,
        14,
        11,
        18,
        9,
        16,
        1,
        30,
        9,
        15,
        2,
        29,
        5,
        28,
        26,
        32,
        5,
        27,
        25,
        31
    ]
}