{
    "mean_fit_time": [
        0.1429232120513916,
        0.17098183631896974,
        0.19632363319396973,
        0.23470377922058105,
        0.15852141380310059,
        0.16966609954833983,
        0.2151200294494629,
        0.23612942695617675,
        0.20201306343078612,
        0.18721213340759277,
        0.2293635845184326,
        0.24715900421142578,
        0.17438716888427735,
        0.18304715156555176,
        0.2072467803955078,
        0.22859635353088378,
        0.3187405109405518,
        0.21921615600585936,
        0.21483426094055175,
        0.2594797611236572,
        0.3304605960845947,
        0.21569557189941407,
        0.20827789306640626,
        0.26375737190246584,
        1.5349722862243653,
        0.6463206768035888,
        0.2949690341949463,
        0.25130252838134765,
        1.2110330581665039,
        0.44745984077453616,
        0.26660833358764646,
        0.19194564819335938
    ],
    "std_fit_time": [
        0.007175610631405748,
        0.010346929283185136,
        0.013663269353175484,
        0.007183070570244975,
        0.010027355507957662,
        0.007322269181780415,
        0.01483301645053748,
        0.017055791601207914,
        0.023610803567641805,
        0.024141875775475944,
        0.018598479845099034,
        0.01960199021091027,
        0.010420860071241312,
        0.015765227498681773,
        0.007861723148271424,
        0.00856689781295516,
        0.017951898378386354,
        0.014561758511154703,
        0.008276700270102074,
        0.016174797722058525,
        0.020115631299813284,
        0.011695312439001482,
        0.009351305350191613,
        0.00885932015687067,
        0.33294840427199857,
        0.1396922014232513,
        0.018784566565986652,
        0.018332983732894097,
        0.2743859233430417,
        0.03951921079835543,
        0.014747800653854335,
        0.014450012048637812
    ],
    "mean_score_time": [
        0.03264927864074707,
        0.03962111473083496,
        0.08463015556335449,
        0.04934449195861816,
        0.030590152740478514,
        0.031596136093139646,
        0.08882675170898438,
        0.0506739616394043,
        0.03387384414672852,
        0.032686614990234376,
        0.08253602981567383,
        0.04851441383361817,
        0.03421387672424316,
        0.03543386459350586,
        0.08279404640197754,
        0.04942221641540527,
        0.030632829666137694,
        0.033983373641967775,
        0.08552689552307129,
        0.04843721389770508,
        0.028765249252319335,
        0.03170924186706543,
        0.0804201602935791,
        0.04871459007263183,
        0.03475155830383301,
        0.03341526985168457,
        0.08423690795898438,
        0.04529242515563965,
        0.022519636154174804,
        0.0269869327545166,
        0.06942005157470703,
        0.0360015869140625
    ],
    "std_score_time": [
        0.004929052988825514,
        0.0030750543828081214,
        0.011788634936688072,
        0.00450382896033191,
        0.006252555136350166,
        0.0043273644991180275,
        0.01034897487482678,
        0.00452093992791425,
        0.006029066942626017,
        0.004678997030206637,
        0.0070331548072638415,
        0.004428820984103795,
        0.007628347686532913,
        0.0018750376584262315,
        0.007230322350658476,
        0.007399602043763272,
        0.005856047210889707,
        0.005945092885281529,
        0.005934562328276771,
        0.00873713525942009,
        0.005155366096169965,
        0.004958456433318137,
        0.01226044070186512,
        0.001899227690106997,
        0.01623056022222261,
        0.003256255520794297,
        0.006216278360551819,
        0.007681087789107921,
        0.0018613143013228059,
        0.004519048532671913,
        0.01052770801119684,
        0.0013337718144851064
    ],
    "param_C": [
        0.1,
        0.1,
        0.1,
        0.1,
        0.1,
        0.1,
        0.1,
        0.1,
        1.0,
        1.0,
        1.0,
        1.0,
        1.0,
        1.0,
        1.0,
        1.0,
        10.0,
        10.0,
        10.0,
        10.0,
        10.0,
        10.0,
        10.0,
        10.0,
        100.0,
        100.0,
        100.0,
        100.0,
        100.0,
        100.0,
        100.0,
        100.0
    ],
    "param_gamma": [
        "scale",
        "scale",
        "scale",
        "scale",
        "auto",
        "auto",
        "auto",
        "auto",
        "scale",
        "scale",
        "scale",
        "scale",
        "auto",
        "auto",
        "auto",
        "auto",
        "scale",
        "scale",
        "scale",
        "scale",
        "auto",
        "auto",
        "auto",
        "auto",
        "scale",
        "scale",
        "scale",
        "scale",
        "auto",
        "auto",
        "auto",
        "auto"
    ],
    "param_kernel": [
        "linear",
        "poly",
        "rbf",
        "sigmoid",
        "linear",
        "poly",
        "rbf",
        "sigmoid",
        "linear",
        "poly",
        "rbf",
        "sigmoid",
        "linear",
        "poly",
        "rbf",
        "sigmoid",
        "linear",
        "poly",
        "rbf",
        "sigmoid",
        "linear",
        "poly",
        "rbf",
        "sigmoid",
        "linear",
        "poly",
        "rbf",
        "sigmoid",
        "linear",
        "poly",
        "rbf",
        "sigmoid"
    ],
    "params": [
        {
            "C": 0.1,
            "gamma": "scale",
            "kernel": "linear"
        },
        {
            "C": 0.1,
            "gamma": "scale",
            "kernel": "poly"
        },
        {
            "C": 0.1,
            "gamma": "scale",
            "kernel": "rbf"
        },
        {
            "C": 0.1,
            "gamma": "scale",
            "kernel": "sigmoid"
        },
        {
            "C": 0.1,
            "gamma": "auto",
            "kernel": "linear"
        },
        {
            "C": 0.1,
            "gamma": "auto",
            "kernel": "poly"
        },
        {
            "C": 0.1,
            "gamma": "auto",
            "kernel": "rbf"
        },
        {
            "C": 0.1,
            "gamma": "auto",
            "kernel": "sigmoid"
        },
        {
            "C": 1,
            "gamma": "scale",
            "kernel": "linear"
        },
        {
            "C": 1,
            "gamma": "scale",
            "kernel": "poly"
        },
        {
            "C": 1,
            "gamma": "scale",
            "kernel": "rbf"
        },
        {
            "C": 1,
            "gamma": "scale",
            "kernel": "sigmoid"
        },
        {
            "C": 1,
            "gamma": "auto",
            "kernel": "linear"
        },
        {
            "C": 1,
            "gamma": "auto",
            "kernel": "poly"
        },
        {
            "C": 1,
            "gamma": "auto",
            "kernel": "rbf"
        },
        {
            "C": 1,
            "gamma": "auto",
            "kernel": "sigmoid"
        },
        {
            "C": 10,
            "gamma": "scale",
            "kernel": "linear"
        },
        {
            "C": 10,
            "gamma": "scale",
            "kernel": "poly"
        },
        {
            "C": 10,
            "gamma": "scale",
            "kernel": "rbf"
        },
        {
            "C": 10,
            "gamma": "scale",
            "kernel": "sigmoid"
        },
        {
            "C": 10,
            "gamma": "auto",
            "kernel": "linear"
        },
        {
            "C": 10,
            "gamma": "auto",
            "kernel": "poly"
        },
        {
            "C": 10,
            "gamma": "auto",
            "kernel": "rbf"
        },
        {
            "C": 10,
            "gamma": "auto",
            "kernel": "sigmoid"
        },
        {
            "C": 100,
            "gamma": "scale",
            "kernel": "linear"
        },
        {
            "C": 100,
            "gamma": "scale",
            "kernel": "poly"
        },
        {
            "C": 100,
            "gamma": "scale",
            "kernel": "rbf"
        },
        {
            "C": 100,
            "gamma": "scale",
            "kernel": "sigmoid"
        },
        {
            "C": 100,
            "gamma": "auto",
            "kernel": "linear"
        },
        {
            "C": 100,
            "gamma": "auto",
            "kernel": "poly"
        },
        {
            "C": 100,
            "gamma": "auto",
            "kernel": "rbf"
        },
        {
            "C": 100,
            "gamma": "auto",
            "kernel": "sigmoid"
        }
    ],
    "split0_test_score": [
        -204.7793416933766,
        -215.79021608899004,
        -217.71662283174365,
        -215.10596810326246,
        -204.7793416933766,
        -215.80345713751817,
        -217.71591910919886,
        -215.10855313232835,
        -206.9739353925845,
        -212.61642376159077,
        -201.1300070752172,
        -227.8431059348214,
        -206.9739353925845,
        -212.6072859938667,
        -201.1287853672866,
        -227.72134586542248,
        -206.79474776406755,
        -214.1937246149611,
        -202.8381539396856,
        -8410.708261783373,
        -206.79474776406755,
        -214.1605291799928,
        -202.82830994242505,
        -8439.028517676352,
        -206.71867964000563,
        -267.8250614350506,
        -227.56095149841303,
        -1113934.7681597762,
        -206.71867964000563,
        -267.5557505884212,
        -227.51656326343073,
        -1112459.2417488554
    ],
    "split1_test_score": [
        -207.17680216508194,
        -220.87561406769404,
        -223.91086975832943,
        -220.26692018641393,
        -207.17680216508194,
        -220.784334171859,
        -223.91030656358532,
        -220.24231591718984,
        -207.74006173250925,
        -210.04119581414608,
        -206.25072008364054,
        -216.51160706238466,
        -207.74006173250925,
        -209.99096869287723,
        -206.25118420525135,
        -216.87885810224336,
        -208.04723510027776,
        -214.7426533513507,
        -205.7585515798467,
        -7101.932980277689,
        -208.04723510027776,
        -214.83131600642525,
        -205.7772997479677,
        -7224.993168586489,
        -208.69780227909945,
        -247.64999457401274,
        -226.6823437518736,
        -740436.6223410983,
        -208.69780227909945,
        -247.89752308020843,
        -226.7898948902685,
        -752293.7115616722
    ],
    "split2_test_score": [
        -204.8724869119869,
        -214.7368022611196,
        -216.80737901687021,
        -213.33346909988379,
        -204.8724869119869,
        -214.66475462027006,
        -216.81390831616113,
        -213.3021794894834,
        -205.55218128584283,
        -210.09619776544818,
        -201.59025573743318,
        -215.40346924090954,
        -205.55218128584283,
        -210.06985495138446,
        -201.60716530069737,
        -216.30497567070267,
        -205.54987804969372,
        -214.52953542007467,
        -200.61148788496942,
        -8229.411845002027,
        -205.54987804969372,
        -214.6797451928202,
        -200.67867248523942,
        -8522.79302195573,
        -205.47024989785703,
        -238.83001333499226,
        -225.05725289929146,
        -786141.1554891528,
        -205.47024989785703,
        -239.116994369593,
        -225.23556541218704,
        -808500.1354982556
    ],
    "split3_test_score": [
        -192.2950876049058,
        -209.42180189779734,
        -212.30442669681378,
        -207.65997236965137,
        -192.2950876049058,
        -209.57537663470583,
        -212.29429038816969,
        -207.76537173036073,
        -191.87723102752332,
        -200.97376142621803,
        -195.74007103778558,
        -206.21237466201387,
        -191.87723102752332,
        -201.069544686709,
        -195.71705259570408,
        -205.28578261842907,
        -192.3648897599243,
        -201.0201617674062,
        -195.97133644675836,
        -12681.389241288296,
        -192.3648897599243,
        -200.61899943954828,
        -195.87673287828298,
        -11951.837386751467,
        -192.25190591283294,
        -235.24556172459356,
        -211.0367761668735,
        -1569913.6057099155,
        -192.25190591283294,
        -233.68325039266668,
        -210.55171242415526,
        -1475815.7106088274
    ],
    "split4_test_score": [
        -197.00131319917858,
        -214.10949197900965,
        -217.8167004127874,
        -213.67556990517636,
        -197.00131319917858,
        -214.0330500838663,
        -217.81989539161236,
        -213.64641062025,
        -196.8632203594323,
        -203.68574957872417,
        -198.2027778253635,
        -206.40388947200728,
        -196.8632203594323,
        -203.6329639654636,
        -198.20280116666913,
        -206.50599340377727,
        -196.7596447869998,
        -206.6539533366931,
        -193.9995142670988,
        -9827.036712142202,
        -196.7596447869998,
        -206.74299150825627,
        -193.99261967634507,
        -9986.216939007249,
        -196.64875204143434,
        -233.4548335705462,
        -211.2808619493224,
        -1106421.7673573594,
        -196.64875204143434,
        -233.5930864121719,
        -211.43394554557588,
        -1115470.4697166595
    ],
    "mean_test_score": [
        -201.22500631490598,
        -214.98678525892214,
        -217.7111997433089,
        -214.0083799328776,
        -201.22500631490598,
        -214.97219452964387,
        -217.71086395374545,
        -214.01296617792246,
        -201.80132595957843,
        -207.48266566922544,
        -200.58276635188798,
        -214.47488927442737,
        -201.80132595957843,
        -207.47412365806022,
        -200.58139772712173,
        -214.53939113211496,
        -201.90327909219263,
        -210.22800569809715,
        -199.83580882367175,
        -9250.095808098718,
        -201.90327909219263,
        -210.20671626540857,
        -199.83072694605204,
        -9224.973806795457,
        -201.9574779542459,
        -244.6010929278391,
        -220.32363725315477,
        -1063369.5838114605,
        -201.9574779542459,
        -244.36932096861224,
        -220.30553630712348,
        -1052907.853826854
    ],
    "std_test_score": [
        5.63816140659268,
        3.664013663879855,
        3.701274234048039,
        4.030944594825442,
        5.63816140659268,
        3.5937200704254266,
        3.7037494701674047,
        3.991919989761867,
        6.3081841086689,
        4.3935066840583685,
        3.537124540305625,
        7.964042721032857,
        6.3081841086689,
        4.363366246981132,
        3.544513681907,
        8.154987120092972,
        6.20338923611205,
        5.5167085847210835,
        4.3287669574746275,
        1921.8535933661822,
        6.20338923611205,
        5.67360996614678,
        4.35393635981542,
        1620.2448268905246,
        6.369007453173991,
        12.599356617652388,
        7.5264408180534215,
        297367.94500126835,
        6.369007453173991,
        12.711923528143949,
        7.644517067238559,
        259389.8607682099
    ],
    "rank_test_score": [
        5,
        22,
        24,
        17,
        5,
        21,
        23,
        18,
        7,
        14,
        4,
        19,
        7,
        13,
        3,
        20,
        9,
        16,
        2,
        30,
        9,
        15,
        1,
        29,
        11,
        28,
        26,
        32,
        11,
        27,
        25,
        31
    ]
}